digraph Tree {
node [shape=box] ;
0 [label="X[2392] <= 4.956\ngini = 0.989\nsamples = 912\nvalue = [9, 11, 9, 11, 9, 10, 12, 11, 10, 8, 8, 9, 8, 10, 10, 9\n10, 9, 11, 8, 9, 9, 9, 9, 8, 7, 8, 12, 10, 11, 9, 10\n10, 10, 10, 8, 10, 11, 10, 9, 7, 11, 9, 9, 9, 10, 9, 10\n10, 7, 12, 11, 11, 11, 8, 12, 10, 7, 10, 8, 11, 11, 11\n7, 9, 9, 10, 9, 10, 10, 10, 11, 10, 9, 8, 7, 11, 9, 9\n11, 10, 12, 11, 10, 9, 10, 9, 10, 9, 11, 9, 10, 10, 8\n10]"] ;
1 [label="X[19399] <= 98.767\ngini = 0.989\nsamples = 900\nvalue = [9, 11, 9, 11, 9, 10, 12, 0, 10, 8, 8, 9, 8, 10, 10, 9\n10, 9, 11, 8, 9, 9, 9, 9, 8, 7, 8, 12, 10, 11, 9, 10\n10, 10, 10, 8, 10, 11, 10, 9, 7, 11, 9, 9, 9, 10, 9, 10\n10, 7, 12, 11, 11, 11, 8, 12, 10, 7, 10, 8, 11, 11, 11\n7, 9, 9, 10, 9, 10, 10, 10, 11, 10, 9, 8, 7, 11, 9, 9\n11, 10, 12, 11, 9, 9, 10, 9, 10, 9, 11, 9, 10, 10, 8, 10]"] ;
0 -> 1 [labeldistance=2.5, labelangle=45, headlabel="True"] ;
2 [label="X[10084] <= 45.53\ngini = 0.989\nsamples = 890\nvalue = [9, 11, 9, 11, 9, 10, 12, 0, 10, 8, 8, 9, 8, 10, 10, 9\n10, 9, 11, 8, 9, 9, 9, 9, 8, 7, 8, 12, 10, 11, 9, 10\n10, 10, 10, 8, 10, 11, 10, 9, 7, 11, 9, 9, 9, 10, 9, 10\n10, 7, 12, 11, 11, 11, 8, 12, 10, 7, 10, 8, 11, 11, 11\n7, 9, 9, 10, 9, 10, 10, 10, 11, 10, 9, 8, 7, 11, 9, 9\n11, 10, 12, 11, 9, 9, 10, 9, 0, 9, 11, 9, 10, 10, 8, 10]"] ;
1 -> 2 ;
3 [label="X[21509] <= 7.752\ngini = 0.989\nsamples = 880\nvalue = [9, 11, 9, 11, 9, 10, 12, 0, 10, 8, 8, 9, 8, 10, 10, 9\n10, 9, 11, 8, 9, 9, 9, 9, 8, 7, 8, 2, 10, 11, 9, 10, 10\n10, 10, 8, 10, 11, 10, 9, 7, 11, 9, 9, 9, 10, 9, 10, 10\n7, 12, 11, 11, 11, 8, 12, 10, 7, 10, 8, 11, 11, 11, 7, 9\n9, 10, 9, 10, 10, 10, 11, 10, 9, 8, 7, 11, 9, 9, 11, 10\n12, 11, 9, 9, 10, 9, 0, 9, 11, 9, 10, 10, 8, 10]"] ;
2 -> 3 ;
4 [label="gini = 0.989\nsamples = 864\nvalue = [9, 11, 9, 11, 9, 10, 12, 0, 10, 8, 8, 7, 8, 10, 10, 9\n9, 9, 11, 8, 9, 9, 9, 9, 8, 7, 8, 2, 10, 11, 9, 10, 10\n10, 10, 8, 10, 11, 10, 9, 6, 11, 9, 9, 9, 10, 9, 10, 10\n7, 0, 11, 11, 11, 8, 12, 10, 7, 10, 8, 11, 11, 11, 7, 9\n9, 10, 9, 10, 10, 10, 11, 10, 9, 8, 7, 11, 9, 9, 11, 10\n12, 11, 9, 9, 10, 9, 0, 9, 11, 9, 10, 10, 8, 10]"] ;
3 -> 4 ;
5 [label="gini = 0.414\nsamples = 16\nvalue = [0, 0, 0, 0, 0, 0, 0, 0, 0, 0, 0, 2, 0, 0, 0, 0, 1, 0\n0, 0, 0, 0, 0, 0, 0, 0, 0, 0, 0, 0, 0, 0, 0, 0, 0, 0\n0, 0, 0, 0, 1, 0, 0, 0, 0, 0, 0, 0, 0, 0, 12, 0, 0, 0\n0, 0, 0, 0, 0, 0, 0, 0, 0, 0, 0, 0, 0, 0, 0, 0, 0, 0\n0, 0, 0, 0, 0, 0, 0, 0, 0, 0, 0, 0, 0, 0, 0, 0, 0, 0\n0, 0, 0, 0, 0]"] ;
3 -> 5 ;
6 [label="gini = 0.0\nsamples = 10\nvalue = [0, 0, 0, 0, 0, 0, 0, 0, 0, 0, 0, 0, 0, 0, 0, 0, 0, 0\n0, 0, 0, 0, 0, 0, 0, 0, 0, 10, 0, 0, 0, 0, 0, 0, 0, 0\n0, 0, 0, 0, 0, 0, 0, 0, 0, 0, 0, 0, 0, 0, 0, 0, 0, 0\n0, 0, 0, 0, 0, 0, 0, 0, 0, 0, 0, 0, 0, 0, 0, 0, 0, 0\n0, 0, 0, 0, 0, 0, 0, 0, 0, 0, 0, 0, 0, 0, 0, 0, 0, 0\n0, 0, 0, 0, 0]"] ;
2 -> 6 ;
7 [label="gini = 0.0\nsamples = 10\nvalue = [0, 0, 0, 0, 0, 0, 0, 0, 0, 0, 0, 0, 0, 0, 0, 0, 0, 0\n0, 0, 0, 0, 0, 0, 0, 0, 0, 0, 0, 0, 0, 0, 0, 0, 0, 0\n0, 0, 0, 0, 0, 0, 0, 0, 0, 0, 0, 0, 0, 0, 0, 0, 0, 0\n0, 0, 0, 0, 0, 0, 0, 0, 0, 0, 0, 0, 0, 0, 0, 0, 0, 0\n0, 0, 0, 0, 0, 0, 0, 0, 0, 0, 0, 0, 0, 0, 0, 10, 0, 0\n0, 0, 0, 0, 0]"] ;
1 -> 7 ;
8 [label="X[15981] <= 26.928\ngini = 0.153\nsamples = 12\nvalue = [0, 0, 0, 0, 0, 0, 0, 11, 0, 0, 0, 0, 0, 0, 0, 0, 0, 0\n0, 0, 0, 0, 0, 0, 0, 0, 0, 0, 0, 0, 0, 0, 0, 0, 0, 0\n0, 0, 0, 0, 0, 0, 0, 0, 0, 0, 0, 0, 0, 0, 0, 0, 0, 0\n0, 0, 0, 0, 0, 0, 0, 0, 0, 0, 0, 0, 0, 0, 0, 0, 0, 0\n0, 0, 0, 0, 0, 0, 0, 0, 0, 0, 0, 1, 0, 0, 0, 0, 0, 0\n0, 0, 0, 0, 0]"] ;
0 -> 8 [labeldistance=2.5, labelangle=-45, headlabel="False"] ;
9 [label="gini = 0.0\nsamples = 11\nvalue = [0, 0, 0, 0, 0, 0, 0, 11, 0, 0, 0, 0, 0, 0, 0, 0, 0, 0\n0, 0, 0, 0, 0, 0, 0, 0, 0, 0, 0, 0, 0, 0, 0, 0, 0, 0\n0, 0, 0, 0, 0, 0, 0, 0, 0, 0, 0, 0, 0, 0, 0, 0, 0, 0\n0, 0, 0, 0, 0, 0, 0, 0, 0, 0, 0, 0, 0, 0, 0, 0, 0, 0\n0, 0, 0, 0, 0, 0, 0, 0, 0, 0, 0, 0, 0, 0, 0, 0, 0, 0\n0, 0, 0, 0, 0]"] ;
8 -> 9 ;
10 [label="gini = 0.0\nsamples = 1\nvalue = [0, 0, 0, 0, 0, 0, 0, 0, 0, 0, 0, 0, 0, 0, 0, 0, 0, 0\n0, 0, 0, 0, 0, 0, 0, 0, 0, 0, 0, 0, 0, 0, 0, 0, 0, 0\n0, 0, 0, 0, 0, 0, 0, 0, 0, 0, 0, 0, 0, 0, 0, 0, 0, 0\n0, 0, 0, 0, 0, 0, 0, 0, 0, 0, 0, 0, 0, 0, 0, 0, 0, 0\n0, 0, 0, 0, 0, 0, 0, 0, 0, 0, 0, 1, 0, 0, 0, 0, 0, 0\n0, 0, 0, 0, 0]"] ;
8 -> 10 ;
}