digraph Tree {
node [shape=box] ;
0 [label="X[5] <= 9.155\ngini = 0.638\nsamples = 450\nvalue = [193, 167, 90]"] ;
1 [label="X[5] <= 8.41\ngini = 0.533\nsamples = 370\nvalue = [192, 164, 14]"] ;
0 -> 1 [labeldistance=2.5, labelangle=45, headlabel="True"] ;
2 [label="X[5] <= 8.08\ngini = 0.272\nsamples = 179\nvalue = [150, 29, 0]"] ;
1 -> 2 ;
3 [label="X[1] <= 113.5\ngini = 0.075\nsamples = 102\nvalue = [98, 4, 0]"] ;
2 -> 3 ;
4 [label="X[2] <= 4.5\ngini = 0.058\nsamples = 101\nvalue = [98, 3, 0]"] ;
3 -> 4 ;
5 [label="X[0] <= 315.5\ngini = 0.039\nsamples = 100\nvalue = [98, 2, 0]"] ;
4 -> 5 ;
6 [label="gini = 0.0\nsamples = 89\nvalue = [89, 0, 0]"] ;
5 -> 6 ;
7 [label="X[0] <= 317.5\ngini = 0.298\nsamples = 11\nvalue = [9, 2, 0]"] ;
5 -> 7 ;
8 [label="X[5] <= 7.77\ngini = 0.444\nsamples = 6\nvalue = [4, 2, 0]"] ;
7 -> 8 ;
9 [label="gini = 0.0\nsamples = 3\nvalue = [3, 0, 0]"] ;
8 -> 9 ;
10 [label="X[1] <= 102.5\ngini = 0.444\nsamples = 3\nvalue = [1, 2, 0]"] ;
8 -> 10 ;
11 [label="gini = 0.0\nsamples = 1\nvalue = [1, 0, 0]"] ;
10 -> 11 ;
12 [label="gini = 0.0\nsamples = 2\nvalue = [0, 2, 0]"] ;
10 -> 12 ;
13 [label="gini = 0.0\nsamples = 5\nvalue = [5, 0, 0]"] ;
7 -> 13 ;
14 [label="gini = 0.0\nsamples = 1\nvalue = [0, 1, 0]"] ;
4 -> 14 ;
15 [label="gini = 0.0\nsamples = 1\nvalue = [0, 1, 0]"] ;
3 -> 15 ;
16 [label="X[0] <= 319.5\ngini = 0.439\nsamples = 77\nvalue = [52, 25, 0]"] ;
2 -> 16 ;
17 [label="X[0] <= 305.5\ngini = 0.396\nsamples = 70\nvalue = [51, 19, 0]"] ;
16 -> 17 ;
18 [label="X[3] <= 3.25\ngini = 0.117\nsamples = 16\nvalue = [15, 1, 0]"] ;
17 -> 18 ;
19 [label="gini = 0.0\nsamples = 11\nvalue = [11, 0, 0]"] ;
18 -> 19 ;
20 [label="X[4] <= 3.25\ngini = 0.32\nsamples = 5\nvalue = [4, 1, 0]"] ;
18 -> 20 ;
21 [label="X[0] <= 302.0\ngini = 0.5\nsamples = 2\nvalue = [1, 1, 0]"] ;
20 -> 21 ;
22 [label="gini = 0.0\nsamples = 1\nvalue = [0, 1, 0]"] ;
21 -> 22 ;
23 [label="gini = 0.0\nsamples = 1\nvalue = [1, 0, 0]"] ;
21 -> 23 ;
24 [label="gini = 0.0\nsamples = 3\nvalue = [3, 0, 0]"] ;
20 -> 24 ;
25 [label="X[6] <= 0.5\ngini = 0.444\nsamples = 54\nvalue = [36, 18, 0]"] ;
17 -> 25 ;
26 [label="X[4] <= 3.75\ngini = 0.361\nsamples = 38\nvalue = [29, 9, 0]"] ;
25 -> 26 ;
27 [label="X[0] <= 310.5\ngini = 0.257\nsamples = 33\nvalue = [28, 5, 0]"] ;
26 -> 27 ;
28 [label="X[3] <= 2.25\ngini = 0.391\nsamples = 15\nvalue = [11, 4, 0]"] ;
27 -> 28 ;
29 [label="gini = 0.0\nsamples = 5\nvalue = [5, 0, 0]"] ;
28 -> 29 ;
30 [label="X[4] <= 2.75\ngini = 0.48\nsamples = 10\nvalue = [6, 4, 0]"] ;
28 -> 30 ;
31 [label="gini = 0.0\nsamples = 2\nvalue = [0, 2, 0]"] ;
30 -> 31 ;
32 [label="X[3] <= 3.25\ngini = 0.375\nsamples = 8\nvalue = [6, 2, 0]"] ;
30 -> 32 ;
33 [label="X[2] <= 2.5\ngini = 0.48\nsamples = 5\nvalue = [3, 2, 0]"] ;
32 -> 33 ;
34 [label="gini = 0.0\nsamples = 2\nvalue = [2, 0, 0]"] ;
33 -> 34 ;
35 [label="X[3] <= 2.75\ngini = 0.444\nsamples = 3\nvalue = [1, 2, 0]"] ;
33 -> 35 ;
36 [label="gini = 0.0\nsamples = 1\nvalue = [0, 1, 0]"] ;
35 -> 36 ;
37 [label="X[1] <= 104.0\ngini = 0.5\nsamples = 2\nvalue = [1, 1, 0]"] ;
35 -> 37 ;
38 [label="gini = 0.0\nsamples = 1\nvalue = [0, 1, 0]"] ;
37 -> 38 ;
39 [label="gini = 0.0\nsamples = 1\nvalue = [1, 0, 0]"] ;
37 -> 39 ;
40 [label="gini = 0.0\nsamples = 3\nvalue = [3, 0, 0]"] ;
32 -> 40 ;
41 [label="X[5] <= 8.13\ngini = 0.105\nsamples = 18\nvalue = [17, 1, 0]"] ;
27 -> 41 ;
42 [label="X[0] <= 316.0\ngini = 0.444\nsamples = 3\nvalue = [2, 1, 0]"] ;
41 -> 42 ;
43 [label="gini = 0.0\nsamples = 2\nvalue = [2, 0, 0]"] ;
42 -> 43 ;
44 [label="gini = 0.0\nsamples = 1\nvalue = [0, 1, 0]"] ;
42 -> 44 ;
45 [label="gini = 0.0\nsamples = 15\nvalue = [15, 0, 0]"] ;
41 -> 45 ;
46 [label="X[3] <= 2.25\ngini = 0.32\nsamples = 5\nvalue = [1, 4, 0]"] ;
26 -> 46 ;
47 [label="gini = 0.0\nsamples = 1\nvalue = [1, 0, 0]"] ;
46 -> 47 ;
48 [label="gini = 0.0\nsamples = 4\nvalue = [0, 4, 0]"] ;
46 -> 48 ;
49 [label="X[1] <= 105.5\ngini = 0.492\nsamples = 16\nvalue = [7, 9, 0]"] ;
25 -> 49 ;
50 [label="X[5] <= 8.31\ngini = 0.486\nsamples = 12\nvalue = [7, 5, 0]"] ;
49 -> 50 ;
51 [label="X[5] <= 8.21\ngini = 0.494\nsamples = 9\nvalue = [4, 5, 0]"] ;
50 -> 51 ;
52 [label="X[5] <= 8.17\ngini = 0.49\nsamples = 7\nvalue = [4, 3, 0]"] ;
51 -> 52 ;
53 [label="X[4] <= 4.0\ngini = 0.375\nsamples = 4\nvalue = [1, 3, 0]"] ;
52 -> 53 ;
54 [label="gini = 0.0\nsamples = 3\nvalue = [0, 3, 0]"] ;
53 -> 54 ;
55 [label="gini = 0.0\nsamples = 1\nvalue = [1, 0, 0]"] ;
53 -> 55 ;
56 [label="gini = 0.0\nsamples = 3\nvalue = [3, 0, 0]"] ;
52 -> 56 ;
57 [label="gini = 0.0\nsamples = 2\nvalue = [0, 2, 0]"] ;
51 -> 57 ;
58 [label="gini = 0.0\nsamples = 3\nvalue = [3, 0, 0]"] ;
50 -> 58 ;
59 [label="gini = 0.0\nsamples = 4\nvalue = [0, 4, 0]"] ;
49 -> 59 ;
60 [label="X[5] <= 8.375\ngini = 0.245\nsamples = 7\nvalue = [1, 6, 0]"] ;
16 -> 60 ;
61 [label="gini = 0.0\nsamples = 5\nvalue = [0, 5, 0]"] ;
60 -> 61 ;
62 [label="X[0] <= 326.0\ngini = 0.5\nsamples = 2\nvalue = [1, 1, 0]"] ;
60 -> 62 ;
63 [label="gini = 0.0\nsamples = 1\nvalue = [1, 0, 0]"] ;
62 -> 63 ;
64 [label="gini = 0.0\nsamples = 1\nvalue = [0, 1, 0]"] ;
62 -> 64 ;
65 [label="X[0] <= 308.5\ngini = 0.447\nsamples = 191\nvalue = [42, 135, 14]"] ;
1 -> 65 ;
66 [label="X[1] <= 104.0\ngini = 0.36\nsamples = 17\nvalue = [13, 4, 0]"] ;
65 -> 66 ;
67 [label="gini = 0.0\nsamples = 7\nvalue = [7, 0, 0]"] ;
66 -> 67 ;
68 [label="X[5] <= 8.625\ngini = 0.48\nsamples = 10\nvalue = [6, 4, 0]"] ;
66 -> 68 ;
69 [label="X[2] <= 2.5\ngini = 0.375\nsamples = 8\nvalue = [6, 2, 0]"] ;
68 -> 69 ;
70 [label="X[4] <= 3.75\ngini = 0.444\nsamples = 3\nvalue = [1, 2, 0]"] ;
69 -> 70 ;
71 [label="gini = 0.0\nsamples = 2\nvalue = [0, 2, 0]"] ;
70 -> 71 ;
72 [label="gini = 0.0\nsamples = 1\nvalue = [1, 0, 0]"] ;
70 -> 72 ;
73 [label="gini = 0.0\nsamples = 5\nvalue = [5, 0, 0]"] ;
69 -> 73 ;
74 [label="gini = 0.0\nsamples = 2\nvalue = [0, 2, 0]"] ;
68 -> 74 ;
75 [label="X[2] <= 4.5\ngini = 0.399\nsamples = 174\nvalue = [29, 131, 14]"] ;
65 -> 75 ;
76 [label="X[0] <= 318.5\ngini = 0.348\nsamples = 159\nvalue = [29, 125, 5]"] ;
75 -> 76 ;
77 [label="X[2] <= 2.5\ngini = 0.438\nsamples = 68\nvalue = [22, 46, 0]"] ;
76 -> 77 ;
78 [label="X[0] <= 311.5\ngini = 0.488\nsamples = 19\nvalue = [11, 8, 0]"] ;
77 -> 78 ;
79 [label="gini = 0.0\nsamples = 2\nvalue = [0, 2, 0]"] ;
78 -> 79 ;
80 [label="X[5] <= 9.01\ngini = 0.457\nsamples = 17\nvalue = [11, 6, 0]"] ;
78 -> 80 ;
81 [label="X[5] <= 8.465\ngini = 0.391\nsamples = 15\nvalue = [11, 4, 0]"] ;
80 -> 81 ;
82 [label="X[3] <= 1.75\ngini = 0.444\nsamples = 3\nvalue = [1, 2, 0]"] ;
81 -> 82 ;
83 [label="gini = 0.0\nsamples = 1\nvalue = [1, 0, 0]"] ;
82 -> 83 ;
84 [label="gini = 0.0\nsamples = 2\nvalue = [0, 2, 0]"] ;
82 -> 84 ;
85 [label="X[0] <= 316.5\ngini = 0.278\nsamples = 12\nvalue = [10, 2, 0]"] ;
81 -> 85 ;
86 [label="gini = 0.0\nsamples = 8\nvalue = [8, 0, 0]"] ;
85 -> 86 ;
87 [label="X[2] <= 1.5\ngini = 0.5\nsamples = 4\nvalue = [2, 2, 0]"] ;
85 -> 87 ;
88 [label="gini = 0.0\nsamples = 1\nvalue = [1, 0, 0]"] ;
87 -> 88 ;
89 [label="X[3] <= 3.75\ngini = 0.444\nsamples = 3\nvalue = [1, 2, 0]"] ;
87 -> 89 ;
90 [label="gini = 0.0\nsamples = 2\nvalue = [0, 2, 0]"] ;
89 -> 90 ;
91 [label="gini = 0.0\nsamples = 1\nvalue = [1, 0, 0]"] ;
89 -> 91 ;
92 [label="gini = 0.0\nsamples = 2\nvalue = [0, 2, 0]"] ;
80 -> 92 ;
93 [label="X[0] <= 311.5\ngini = 0.348\nsamples = 49\nvalue = [11, 38, 0]"] ;
77 -> 93 ;
94 [label="X[5] <= 8.645\ngini = 0.49\nsamples = 7\nvalue = [4, 3, 0]"] ;
93 -> 94 ;
95 [label="gini = 0.0\nsamples = 3\nvalue = [3, 0, 0]"] ;
94 -> 95 ;
96 [label="X[5] <= 9.02\ngini = 0.375\nsamples = 4\nvalue = [1, 3, 0]"] ;
94 -> 96 ;
97 [label="gini = 0.0\nsamples = 3\nvalue = [0, 3, 0]"] ;
96 -> 97 ;
98 [label="gini = 0.0\nsamples = 1\nvalue = [1, 0, 0]"] ;
96 -> 98 ;
99 [label="X[4] <= 3.25\ngini = 0.278\nsamples = 42\nvalue = [7, 35, 0]"] ;
93 -> 99 ;
100 [label="X[3] <= 3.75\ngini = 0.473\nsamples = 13\nvalue = [5, 8, 0]"] ;
99 -> 100 ;
101 [label="X[5] <= 8.605\ngini = 0.397\nsamples = 11\nvalue = [3, 8, 0]"] ;
100 -> 101 ;
102 [label="X[1] <= 107.5\ngini = 0.5\nsamples = 6\nvalue = [3, 3, 0]"] ;
101 -> 102 ;
103 [label="X[3] <= 3.25\ngini = 0.375\nsamples = 4\nvalue = [1, 3, 0]"] ;
102 -> 103 ;
104 [label="gini = 0.0\nsamples = 3\nvalue = [0, 3, 0]"] ;
103 -> 104 ;
105 [label="gini = 0.0\nsamples = 1\nvalue = [1, 0, 0]"] ;
103 -> 105 ;
106 [label="gini = 0.0\nsamples = 2\nvalue = [2, 0, 0]"] ;
102 -> 106 ;
107 [label="gini = 0.0\nsamples = 5\nvalue = [0, 5, 0]"] ;
101 -> 107 ;
108 [label="gini = 0.0\nsamples = 2\nvalue = [2, 0, 0]"] ;
100 -> 108 ;
109 [label="X[5] <= 8.775\ngini = 0.128\nsamples = 29\nvalue = [2, 27, 0]"] ;
99 -> 109 ;
110 [label="gini = 0.0\nsamples = 18\nvalue = [0, 18, 0]"] ;
109 -> 110 ;
111 [label="X[5] <= 8.785\ngini = 0.298\nsamples = 11\nvalue = [2, 9, 0]"] ;
109 -> 111 ;
112 [label="gini = 0.0\nsamples = 2\nvalue = [2, 0, 0]"] ;
111 -> 112 ;
113 [label="gini = 0.0\nsamples = 9\nvalue = [0, 9, 0]"] ;
111 -> 113 ;
114 [label="X[1] <= 118.0\ngini = 0.237\nsamples = 91\nvalue = [7, 79, 5]"] ;
76 -> 114 ;
115 [label="X[6] <= 0.5\ngini = 0.205\nsamples = 89\nvalue = [7, 79, 3]"] ;
114 -> 115 ;
116 [label="X[1] <= 102.0\ngini = 0.375\nsamples = 16\nvalue = [4, 12, 0]"] ;
115 -> 116 ;
117 [label="gini = 0.0\nsamples = 1\nvalue = [1, 0, 0]"] ;
116 -> 117 ;
118 [label="X[0] <= 324.5\ngini = 0.32\nsamples = 15\nvalue = [3, 12, 0]"] ;
116 -> 118 ;
119 [label="gini = 0.0\nsamples = 8\nvalue = [0, 8, 0]"] ;
118 -> 119 ;
120 [label="X[4] <= 3.75\ngini = 0.49\nsamples = 7\nvalue = [3, 4, 0]"] ;
118 -> 120 ;
121 [label="X[1] <= 109.5\ngini = 0.375\nsamples = 4\nvalue = [3, 1, 0]"] ;
120 -> 121 ;
122 [label="gini = 0.0\nsamples = 1\nvalue = [0, 1, 0]"] ;
121 -> 122 ;
123 [label="gini = 0.0\nsamples = 3\nvalue = [3, 0, 0]"] ;
121 -> 123 ;
124 [label="gini = 0.0\nsamples = 3\nvalue = [0, 3, 0]"] ;
120 -> 124 ;
125 [label="X[4] <= 1.75\ngini = 0.154\nsamples = 73\nvalue = [3, 67, 3]"] ;
115 -> 125 ;
126 [label="gini = 0.0\nsamples = 1\nvalue = [1, 0, 0]"] ;
125 -> 126 ;
127 [label="X[5] <= 8.455\ngini = 0.132\nsamples = 72\nvalue = [2, 67, 3]"] ;
125 -> 127 ;
128 [label="X[5] <= 8.445\ngini = 0.444\nsamples = 3\nvalue = [1, 2, 0]"] ;
127 -> 128 ;
129 [label="gini = 0.0\nsamples = 2\nvalue = [0, 2, 0]"] ;
128 -> 129 ;
130 [label="gini = 0.0\nsamples = 1\nvalue = [1, 0, 0]"] ;
128 -> 130 ;
131 [label="X[3] <= 3.75\ngini = 0.11\nsamples = 69\nvalue = [1, 65, 3]"] ;
127 -> 131 ;
132 [label="gini = 0.0\nsamples = 42\nvalue = [0, 42, 0]"] ;
131 -> 132 ;
133 [label="X[0] <= 322.5\ngini = 0.261\nsamples = 27\nvalue = [1, 23, 3]"] ;
131 -> 133 ;
134 [label="X[5] <= 8.92\ngini = 0.571\nsamples = 7\nvalue = [1, 4, 2]"] ;
133 -> 134 ;
135 [label="X[4] <= 4.25\ngini = 0.375\nsamples = 4\nvalue = [1, 3, 0]"] ;
134 -> 135 ;
136 [label="X[0] <= 320.5\ngini = 0.5\nsamples = 2\nvalue = [1, 1, 0]"] ;
135 -> 136 ;
137 [label="gini = 0.0\nsamples = 1\nvalue = [0, 1, 0]"] ;
136 -> 137 ;
138 [label="gini = 0.0\nsamples = 1\nvalue = [1, 0, 0]"] ;
136 -> 138 ;
139 [label="gini = 0.0\nsamples = 2\nvalue = [0, 2, 0]"] ;
135 -> 139 ;
140 [label="X[1] <= 109.5\ngini = 0.444\nsamples = 3\nvalue = [0, 1, 2]"] ;
134 -> 140 ;
141 [label="gini = 0.0\nsamples = 1\nvalue = [0, 1, 0]"] ;
140 -> 141 ;
142 [label="gini = 0.0\nsamples = 2\nvalue = [0, 0, 2]"] ;
140 -> 142 ;
143 [label="X[1] <= 112.5\ngini = 0.095\nsamples = 20\nvalue = [0, 19, 1]"] ;
133 -> 143 ;
144 [label="gini = 0.0\nsamples = 16\nvalue = [0, 16, 0]"] ;
143 -> 144 ;
145 [label="X[5] <= 9.095\ngini = 0.375\nsamples = 4\nvalue = [0, 3, 1]"] ;
143 -> 145 ;
146 [label="gini = 0.0\nsamples = 3\nvalue = [0, 3, 0]"] ;
145 -> 146 ;
147 [label="gini = 0.0\nsamples = 1\nvalue = [0, 0, 1]"] ;
145 -> 147 ;
148 [label="gini = 0.0\nsamples = 2\nvalue = [0, 0, 2]"] ;
114 -> 148 ;
149 [label="X[5] <= 8.89\ngini = 0.48\nsamples = 15\nvalue = [0, 6, 9]"] ;
75 -> 149 ;
150 [label="gini = 0.0\nsamples = 6\nvalue = [0, 6, 0]"] ;
149 -> 150 ;
151 [label="gini = 0.0\nsamples = 9\nvalue = [0, 0, 9]"] ;
149 -> 151 ;
152 [label="X[1] <= 109.5\ngini = 0.096\nsamples = 80\nvalue = [1, 3, 76]"] ;
0 -> 152 [labeldistance=2.5, labelangle=-45, headlabel="False"] ;
153 [label="X[3] <= 4.0\ngini = 0.5\nsamples = 2\nvalue = [1, 1, 0]"] ;
152 -> 153 ;
154 [label="gini = 0.0\nsamples = 1\nvalue = [1, 0, 0]"] ;
153 -> 154 ;
155 [label="gini = 0.0\nsamples = 1\nvalue = [0, 1, 0]"] ;
153 -> 155 ;
156 [label="X[4] <= 3.25\ngini = 0.05\nsamples = 78\nvalue = [0, 2, 76]"] ;
152 -> 156 ;
157 [label="X[5] <= 9.27\ngini = 0.444\nsamples = 3\nvalue = [0, 1, 2]"] ;
156 -> 157 ;
158 [label="gini = 0.0\nsamples = 2\nvalue = [0, 0, 2]"] ;
157 -> 158 ;
159 [label="gini = 0.0\nsamples = 1\nvalue = [0, 1, 0]"] ;
157 -> 159 ;
160 [label="X[5] <= 9.175\ngini = 0.026\nsamples = 75\nvalue = [0, 1, 74]"] ;
156 -> 160 ;
161 [label="X[5] <= 9.165\ngini = 0.32\nsamples = 5\nvalue = [0, 1, 4]"] ;
160 -> 161 ;
162 [label="gini = 0.0\nsamples = 4\nvalue = [0, 0, 4]"] ;
161 -> 162 ;
163 [label="gini = 0.0\nsamples = 1\nvalue = [0, 1, 0]"] ;
161 -> 163 ;
164 [label="gini = 0.0\nsamples = 70\nvalue = [0, 0, 70]"] ;
160 -> 164 ;
}