digraph Tree {
node [shape=box] ;
0 [label="X[5] <= 9.155\ngini = 0.6426\nsamples = 400\nvalue = [168, 148, 84]"] ;
1 [label="X[5] <= 8.41\ngini = 0.5402\nsamples = 329\nvalue = [168, 146, 15]"] ;
0 -> 1 [labeldistance=2.5, labelangle=45, headlabel="True"] ;
2 [label="X[1] <= 102.5\ngini = 0.2764\nsamples = 157\nvalue = [131, 26, 0]"] ;
1 -> 2 ;
3 [label="X[5] <= 8.145\ngini = 0.0494\nsamples = 79\nvalue = [77, 2, 0]"] ;
2 -> 3 ;
4 [label="gini = 0.0\nsamples = 64\nvalue = [64, 0, 0]"] ;
3 -> 4 ;
5 [label="X[5] <= 8.165\ngini = 0.2311\nsamples = 15\nvalue = [13, 2, 0]"] ;
3 -> 5 ;
6 [label="gini = 0.0\nsamples = 1\nvalue = [0, 1, 0]"] ;
5 -> 6 ;
7 [label="X[5] <= 8.265\ngini = 0.1327\nsamples = 14\nvalue = [13, 1, 0]"] ;
5 -> 7 ;
8 [label="gini = 0.0\nsamples = 10\nvalue = [10, 0, 0]"] ;
7 -> 8 ;
9 [label="X[3] <= 2.75\ngini = 0.375\nsamples = 4\nvalue = [3, 1, 0]"] ;
7 -> 9 ;
10 [label="gini = 0.0\nsamples = 3\nvalue = [3, 0, 0]"] ;
9 -> 10 ;
11 [label="gini = 0.0\nsamples = 1\nvalue = [0, 1, 0]"] ;
9 -> 11 ;
12 [label="X[0] <= 326.0\ngini = 0.426\nsamples = 78\nvalue = [54, 24, 0]"] ;
2 -> 12 ;
13 [label="X[4] <= 4.25\ngini = 0.4032\nsamples = 75\nvalue = [54, 21, 0]"] ;
12 -> 13 ;
14 [label="X[5] <= 7.875\ngini = 0.375\nsamples = 72\nvalue = [54, 18, 0]"] ;
13 -> 14 ;
15 [label="gini = 0.0\nsamples = 13\nvalue = [13, 0, 0]"] ;
14 -> 15 ;
16 [label="X[5] <= 8.335\ngini = 0.424\nsamples = 59\nvalue = [41, 18, 0]"] ;
14 -> 16 ;
17 [label="X[5] <= 8.16\ngini = 0.4567\nsamples = 51\nvalue = [33, 18, 0]"] ;
16 -> 17 ;
18 [label="X[0] <= 308.5\ngini = 0.3829\nsamples = 31\nvalue = [23, 8, 0]"] ;
17 -> 18 ;
19 [label="X[2] <= 4.5\ngini = 0.142\nsamples = 13\nvalue = [12, 1, 0]"] ;
18 -> 19 ;
20 [label="gini = 0.0\nsamples = 12\nvalue = [12, 0, 0]"] ;
19 -> 20 ;
21 [label="gini = 0.0\nsamples = 1\nvalue = [0, 1, 0]"] ;
19 -> 21 ;
22 [label="X[1] <= 103.5\ngini = 0.4753\nsamples = 18\nvalue = [11, 7, 0]"] ;
18 -> 22 ;
23 [label="gini = 0.0\nsamples = 3\nvalue = [3, 0, 0]"] ;
22 -> 23 ;
24 [label="X[1] <= 104.5\ngini = 0.4978\nsamples = 15\nvalue = [8, 7, 0]"] ;
22 -> 24 ;
25 [label="gini = 0.0\nsamples = 2\nvalue = [0, 2, 0]"] ;
24 -> 25 ;
26 [label="X[0] <= 311.5\ngini = 0.4734\nsamples = 13\nvalue = [8, 5, 0]"] ;
24 -> 26 ;
27 [label="X[5] <= 8.005\ngini = 0.375\nsamples = 4\nvalue = [1, 3, 0]"] ;
26 -> 27 ;
28 [label="gini = 0.0\nsamples = 1\nvalue = [1, 0, 0]"] ;
27 -> 28 ;
29 [label="gini = 0.0\nsamples = 3\nvalue = [0, 3, 0]"] ;
27 -> 29 ;
30 [label="X[5] <= 7.895\ngini = 0.3457\nsamples = 9\nvalue = [7, 2, 0]"] ;
26 -> 30 ;
31 [label="gini = 0.0\nsamples = 1\nvalue = [0, 1, 0]"] ;
30 -> 31 ;
32 [label="X[0] <= 323.0\ngini = 0.2188\nsamples = 8\nvalue = [7, 1, 0]"] ;
30 -> 32 ;
33 [label="gini = 0.0\nsamples = 7\nvalue = [7, 0, 0]"] ;
32 -> 33 ;
34 [label="gini = 0.0\nsamples = 1\nvalue = [0, 1, 0]"] ;
32 -> 34 ;
35 [label="X[1] <= 104.5\ngini = 0.5\nsamples = 20\nvalue = [10, 10, 0]"] ;
17 -> 35 ;
36 [label="gini = 0.0\nsamples = 3\nvalue = [3, 0, 0]"] ;
35 -> 36 ;
37 [label="X[6] <= 0.5\ngini = 0.4844\nsamples = 17\nvalue = [7, 10, 0]"] ;
35 -> 37 ;
38 [label="X[5] <= 8.31\ngini = 0.48\nsamples = 10\nvalue = [6, 4, 0]"] ;
37 -> 38 ;
39 [label="X[0] <= 307.0\ngini = 0.375\nsamples = 8\nvalue = [6, 2, 0]"] ;
38 -> 39 ;
40 [label="gini = 0.0\nsamples = 1\nvalue = [0, 1, 0]"] ;
39 -> 40 ;
41 [label="X[4] <= 3.75\ngini = 0.2449\nsamples = 7\nvalue = [6, 1, 0]"] ;
39 -> 41 ;
42 [label="gini = 0.0\nsamples = 6\nvalue = [6, 0, 0]"] ;
41 -> 42 ;
43 [label="gini = 0.0\nsamples = 1\nvalue = [0, 1, 0]"] ;
41 -> 43 ;
44 [label="gini = 0.0\nsamples = 2\nvalue = [0, 2, 0]"] ;
38 -> 44 ;
45 [label="X[0] <= 305.0\ngini = 0.2449\nsamples = 7\nvalue = [1, 6, 0]"] ;
37 -> 45 ;
46 [label="gini = 0.0\nsamples = 1\nvalue = [1, 0, 0]"] ;
45 -> 46 ;
47 [label="gini = 0.0\nsamples = 6\nvalue = [0, 6, 0]"] ;
45 -> 47 ;
48 [label="gini = 0.0\nsamples = 8\nvalue = [8, 0, 0]"] ;
16 -> 48 ;
49 [label="gini = 0.0\nsamples = 3\nvalue = [0, 3, 0]"] ;
13 -> 49 ;
50 [label="gini = 0.0\nsamples = 3\nvalue = [0, 3, 0]"] ;
12 -> 50 ;
51 [label="X[0] <= 306.5\ngini = 0.4594\nsamples = 172\nvalue = [37, 120, 15]"] ;
1 -> 51 ;
52 [label="gini = 0.0\nsamples = 9\nvalue = [9, 0, 0]"] ;
51 -> 52 ;
53 [label="X[2] <= 4.5\ngini = 0.42\nsamples = 163\nvalue = [28, 120, 15]"] ;
51 -> 53 ;
54 [label="X[0] <= 318.5\ngini = 0.3546\nsamples = 145\nvalue = [28, 113, 4]"] ;
53 -> 54 ;
55 [label="X[4] <= 3.25\ngini = 0.462\nsamples = 58\nvalue = [21, 37, 0]"] ;
54 -> 55 ;
56 [label="X[3] <= 3.25\ngini = 0.495\nsamples = 20\nvalue = [11, 9, 0]"] ;
55 -> 56 ;
57 [label="X[2] <= 2.5\ngini = 0.4734\nsamples = 13\nvalue = [5, 8, 0]"] ;
56 -> 57 ;
58 [label="X[0] <= 311.5\ngini = 0.4688\nsamples = 8\nvalue = [5, 3, 0]"] ;
57 -> 58 ;
59 [label="gini = 0.0\nsamples = 1\nvalue = [0, 1, 0]"] ;
58 -> 59 ;
60 [label="X[0] <= 316.5\ngini = 0.4082\nsamples = 7\nvalue = [5, 2, 0]"] ;
58 -> 60 ;
61 [label="X[3] <= 2.25\ngini = 0.2778\nsamples = 6\nvalue = [5, 1, 0]"] ;
60 -> 61 ;
62 [label="X[5] <= 8.455\ngini = 0.5\nsamples = 2\nvalue = [1, 1, 0]"] ;
61 -> 62 ;
63 [label="gini = 0.0\nsamples = 1\nvalue = [0, 1, 0]"] ;
62 -> 63 ;
64 [label="gini = 0.0\nsamples = 1\nvalue = [1, 0, 0]"] ;
62 -> 64 ;
65 [label="gini = 0.0\nsamples = 4\nvalue = [4, 0, 0]"] ;
61 -> 65 ;
66 [label="gini = 0.0\nsamples = 1\nvalue = [0, 1, 0]"] ;
60 -> 66 ;
67 [label="gini = 0.0\nsamples = 5\nvalue = [0, 5, 0]"] ;
57 -> 67 ;
68 [label="X[5] <= 8.48\ngini = 0.2449\nsamples = 7\nvalue = [6, 1, 0]"] ;
56 -> 68 ;
69 [label="X[5] <= 8.455\ngini = 0.5\nsamples = 2\nvalue = [1, 1, 0]"] ;
68 -> 69 ;
70 [label="gini = 0.0\nsamples = 1\nvalue = [1, 0, 0]"] ;
69 -> 70 ;
71 [label="gini = 0.0\nsamples = 1\nvalue = [0, 1, 0]"] ;
69 -> 71 ;
72 [label="gini = 0.0\nsamples = 5\nvalue = [5, 0, 0]"] ;
68 -> 72 ;
73 [label="X[2] <= 2.5\ngini = 0.3878\nsamples = 38\nvalue = [10, 28, 0]"] ;
55 -> 73 ;
74 [label="X[0] <= 313.0\ngini = 0.5\nsamples = 10\nvalue = [5, 5, 0]"] ;
73 -> 74 ;
75 [label="gini = 0.0\nsamples = 3\nvalue = [0, 3, 0]"] ;
74 -> 75 ;
76 [label="X[0] <= 317.5\ngini = 0.4082\nsamples = 7\nvalue = [5, 2, 0]"] ;
74 -> 76 ;
77 [label="gini = 0.0\nsamples = 4\nvalue = [4, 0, 0]"] ;
76 -> 77 ;
78 [label="X[1] <= 109.5\ngini = 0.4444\nsamples = 3\nvalue = [1, 2, 0]"] ;
76 -> 78 ;
79 [label="gini = 0.0\nsamples = 2\nvalue = [0, 2, 0]"] ;
78 -> 79 ;
80 [label="gini = 0.0\nsamples = 1\nvalue = [1, 0, 0]"] ;
78 -> 80 ;
81 [label="X[0] <= 311.5\ngini = 0.2934\nsamples = 28\nvalue = [5, 23, 0]"] ;
73 -> 81 ;
82 [label="X[3] <= 4.0\ngini = 0.48\nsamples = 5\nvalue = [3, 2, 0]"] ;
81 -> 82 ;
83 [label="gini = 0.0\nsamples = 2\nvalue = [0, 2, 0]"] ;
82 -> 83 ;
84 [label="gini = 0.0\nsamples = 3\nvalue = [3, 0, 0]"] ;
82 -> 84 ;
85 [label="X[5] <= 8.775\ngini = 0.1588\nsamples = 23\nvalue = [2, 21, 0]"] ;
81 -> 85 ;
86 [label="gini = 0.0\nsamples = 16\nvalue = [0, 16, 0]"] ;
85 -> 86 ;
87 [label="X[5] <= 8.79\ngini = 0.4082\nsamples = 7\nvalue = [2, 5, 0]"] ;
85 -> 87 ;
88 [label="gini = 0.0\nsamples = 2\nvalue = [2, 0, 0]"] ;
87 -> 88 ;
89 [label="gini = 0.0\nsamples = 5\nvalue = [0, 5, 0]"] ;
87 -> 89 ;
90 [label="X[1] <= 116.5\ngini = 0.2283\nsamples = 87\nvalue = [7, 76, 4]"] ;
54 -> 90 ;
91 [label="X[4] <= 3.25\ngini = 0.1932\nsamples = 85\nvalue = [7, 76, 2]"] ;
90 -> 91 ;
92 [label="X[1] <= 109.0\ngini = 0.3282\nsamples = 29\nvalue = [6, 23, 0]"] ;
91 -> 92 ;
93 [label="X[4] <= 2.75\ngini = 0.4444\nsamples = 6\nvalue = [4, 2, 0]"] ;
92 -> 93 ;
94 [label="gini = 0.0\nsamples = 2\nvalue = [0, 2, 0]"] ;
93 -> 94 ;
95 [label="gini = 0.0\nsamples = 4\nvalue = [4, 0, 0]"] ;
93 -> 95 ;
96 [label="X[4] <= 1.75\ngini = 0.1588\nsamples = 23\nvalue = [2, 21, 0]"] ;
92 -> 96 ;
97 [label="gini = 0.0\nsamples = 1\nvalue = [1, 0, 0]"] ;
96 -> 97 ;
98 [label="X[1] <= 114.5\ngini = 0.0868\nsamples = 22\nvalue = [1, 21, 0]"] ;
96 -> 98 ;
99 [label="gini = 0.0\nsamples = 20\nvalue = [0, 20, 0]"] ;
98 -> 99 ;
100 [label="X[0] <= 325.0\ngini = 0.5\nsamples = 2\nvalue = [1, 1, 0]"] ;
98 -> 100 ;
101 [label="gini = 0.0\nsamples = 1\nvalue = [1, 0, 0]"] ;
100 -> 101 ;
102 [label="gini = 0.0\nsamples = 1\nvalue = [0, 1, 0]"] ;
100 -> 102 ;
103 [label="X[5] <= 8.905\ngini = 0.1027\nsamples = 56\nvalue = [1, 53, 2]"] ;
91 -> 103 ;
104 [label="gini = 0.0\nsamples = 33\nvalue = [0, 33, 0]"] ;
103 -> 104 ;
105 [label="X[5] <= 8.935\ngini = 0.2344\nsamples = 23\nvalue = [1, 20, 2]"] ;
103 -> 105 ;
106 [label="gini = 0.0\nsamples = 1\nvalue = [1, 0, 0]"] ;
105 -> 106 ;
107 [label="X[0] <= 323.0\ngini = 0.1653\nsamples = 22\nvalue = [0, 20, 2]"] ;
105 -> 107 ;
108 [label="X[1] <= 111.5\ngini = 0.48\nsamples = 5\nvalue = [0, 3, 2]"] ;
107 -> 108 ;
109 [label="X[1] <= 109.5\ngini = 0.4444\nsamples = 3\nvalue = [0, 1, 2]"] ;
108 -> 109 ;
110 [label="gini = 0.0\nsamples = 1\nvalue = [0, 1, 0]"] ;
109 -> 110 ;
111 [label="gini = 0.0\nsamples = 2\nvalue = [0, 0, 2]"] ;
109 -> 111 ;
112 [label="gini = 0.0\nsamples = 2\nvalue = [0, 2, 0]"] ;
108 -> 112 ;
113 [label="gini = 0.0\nsamples = 17\nvalue = [0, 17, 0]"] ;
107 -> 113 ;
114 [label="gini = 0.0\nsamples = 2\nvalue = [0, 0, 2]"] ;
90 -> 114 ;
115 [label="X[5] <= 8.89\ngini = 0.4753\nsamples = 18\nvalue = [0, 7, 11]"] ;
53 -> 115 ;
116 [label="gini = 0.0\nsamples = 7\nvalue = [0, 7, 0]"] ;
115 -> 116 ;
117 [label="gini = 0.0\nsamples = 11\nvalue = [0, 0, 11]"] ;
115 -> 117 ;
118 [label="X[5] <= 9.175\ngini = 0.0548\nsamples = 71\nvalue = [0, 2, 69]"] ;
0 -> 118 [labeldistance=2.5, labelangle=-45, headlabel="False"] ;
119 [label="X[4] <= 3.75\ngini = 0.48\nsamples = 5\nvalue = [0, 2, 3]"] ;
118 -> 119 ;
120 [label="gini = 0.0\nsamples = 2\nvalue = [0, 0, 2]"] ;
119 -> 120 ;
121 [label="X[2] <= 4.5\ngini = 0.4444\nsamples = 3\nvalue = [0, 2, 1]"] ;
119 -> 121 ;
122 [label="gini = 0.0\nsamples = 2\nvalue = [0, 2, 0]"] ;
121 -> 122 ;
123 [label="gini = 0.0\nsamples = 1\nvalue = [0, 0, 1]"] ;
121 -> 123 ;
124 [label="gini = 0.0\nsamples = 66\nvalue = [0, 0, 66]"] ;
118 -> 124 ;
}